digraph Tree {
node [shape=box, style="filled, rounded", color="black", fontname=helvetica] ;
edge [fontname=helvetica] ;
0 [label="Cell Size <= 2.5\ngini = 0.455\nsamples = 683\nvalue = [444, 239]\nclass = benign", fillcolor="#f3c5a4"] ;
1 [label="Nuclei <= 5.5\ngini = 0.056\nsamples = 418\nvalue = [406, 12]\nclass = benign", fillcolor="#e6853f"] ;
0 -> 1 [labeldistance=2.5, labelangle=45, headlabel="True"] ;
2 [label="Clump Thickness <= 6.5\ngini = 0.024\nsamples = 410\nvalue = [405, 5]\nclass = benign", fillcolor="#e5833b"] ;
1 -> 2 ;
3 [label="Nucleoli <= 9.0\ngini = 0.01\nsamples = 405\nvalue = [403, 2]\nclass = benign", fillcolor="#e5823a"] ;
2 -> 3 ;
4 [label="Nuclei <= 4.5\ngini = 0.005\nsamples = 404\nvalue = [403, 1]\nclass = benign", fillcolor="#e58139"] ;
3 -> 4 ;
5 [label="gini = 0.0\nsamples = 396\nvalue = [396, 0]\nclass = benign", fillcolor="#e58139"] ;
4 -> 5 ;
6 [label="Epithelial <= 1.5\ngini = 0.219\nsamples = 8\nvalue = [7, 1]\nclass = benign", fillcolor="#e99355"] ;
4 -> 6 ;
7 [label="gini = 0.0\nsamples = 1\nvalue = [0, 1]\nclass = malignant", fillcolor="#399de5"] ;
6 -> 7 ;
8 [label="gini = 0.0\nsamples = 7\nvalue = [7, 0]\nclass = benign", fillcolor="#e58139"] ;
6 -> 8 ;
9 [label="gini = 0.0\nsamples = 1\nvalue = [0, 1]\nclass = malignant", fillcolor="#399de5"] ;
3 -> 9 ;
10 [label="Cell Shape <= 2.5\ngini = 0.48\nsamples = 5\nvalue = [2, 3]\nclass = malignant", fillcolor="#bddef6"] ;
2 -> 10 ;
11 [label="gini = 0.0\nsamples = 2\nvalue = [2, 0]\nclass = benign", fillcolor="#e58139"] ;
10 -> 11 ;
12 [label="gini = 0.0\nsamples = 3\nvalue = [0, 3]\nclass = malignant", fillcolor="#399de5"] ;
10 -> 12 ;
13 [label="Clump Thickness <= 2.5\ngini = 0.219\nsamples = 8\nvalue = [1, 7]\nclass = malignant", fillcolor="#55abe9"] ;
1 -> 13 ;
14 [label="gini = 0.0\nsamples = 1\nvalue = [1, 0]\nclass = benign", fillcolor="#e58139"] ;
13 -> 14 ;
15 [label="gini = 0.0\nsamples = 7\nvalue = [0, 7]\nclass = malignant", fillcolor="#399de5"] ;
13 -> 15 ;
16 [label="Cell Shape <= 2.5\ngini = 0.246\nsamples = 265\nvalue = [38, 227]\nclass = malignant", fillcolor="#5aade9"] ;
0 -> 16 [labeldistance=2.5, labelangle=-45, headlabel="False"] ;
17 [label="Clump Thickness <= 5.5\ngini = 0.34\nsamples = 23\nvalue = [18, 5]\nclass = benign", fillcolor="#eca470"] ;
16 -> 17 ;
18 [label="Chromatin <= 6.5\ngini = 0.1\nsamples = 19\nvalue = [18, 1]\nclass = benign", fillcolor="#e68844"] ;
17 -> 18 ;
19 [label="gini = 0.0\nsamples = 18\nvalue = [18, 0]\nclass = benign", fillcolor="#e58139"] ;
18 -> 19 ;
20 [label="gini = 0.0\nsamples = 1\nvalue = [0, 1]\nclass = malignant", fillcolor="#399de5"] ;
18 -> 20 ;
21 [label="gini = 0.0\nsamples = 4\nvalue = [0, 4]\nclass = malignant", fillcolor="#399de5"] ;
17 -> 21 ;
22 [label="Cell Size <= 4.5\ngini = 0.152\nsamples = 242\nvalue = [20, 222]\nclass = malignant", fillcolor="#4ba6e7"] ;
16 -> 22 ;
23 [label="Nuclei <= 2.5\ngini = 0.375\nsamples = 68\nvalue = [17, 51]\nclass = malignant", fillcolor="#7bbeee"] ;
22 -> 23 ;
24 [label="Adhesion <= 3.5\ngini = 0.408\nsamples = 14\nvalue = [10, 4]\nclass = benign", fillcolor="#efb388"] ;
23 -> 24 ;
25 [label="Nucleoli <= 7.5\ngini = 0.165\nsamples = 11\nvalue = [10, 1]\nclass = benign", fillcolor="#e88e4d"] ;
24 -> 25 ;
26 [label="gini = 0.0\nsamples = 10\nvalue = [10, 0]\nclass = benign", fillcolor="#e58139"] ;
25 -> 26 ;
27 [label="gini = 0.0\nsamples = 1\nvalue = [0, 1]\nclass = malignant", fillcolor="#399de5"] ;
25 -> 27 ;
28 [label="gini = 0.0\nsamples = 3\nvalue = [0, 3]\nclass = malignant", fillcolor="#399de5"] ;
24 -> 28 ;
29 [label="Clump Thickness <= 6.5\ngini = 0.226\nsamples = 54\nvalue = [7, 47]\nclass = malignant", fillcolor="#56ace9"] ;
23 -> 29 ;
30 [label="Clump Thickness <= 5.5\ngini = 0.386\nsamples = 23\nvalue = [6, 17]\nclass = malignant", fillcolor="#7fc0ee"] ;
29 -> 30 ;
31 [label="Nuclei <= 6.0\ngini = 0.351\nsamples = 22\nvalue = [5, 17]\nclass = malignant", fillcolor="#73baed"] ;
30 -> 31 ;
32 [label="Cell Size <= 3.5\ngini = 0.494\nsamples = 9\nvalue = [4, 5]\nclass = malignant", fillcolor="#d7ebfa"] ;
31 -> 32 ;
33 [label="gini = 0.278\nsamples = 6\nvalue = [1, 5]\nclass = malignant", fillcolor="#61b1ea"] ;
32 -> 33 ;
34 [label="gini = 0.0\nsamples = 3\nvalue = [3, 0]\nclass = benign", fillcolor="#e58139"] ;
32 -> 34 ;
35 [label="Chromatin <= 3.5\ngini = 0.142\nsamples = 13\nvalue = [1, 12]\nclass = malignant", fillcolor="#49a5e7"] ;
31 -> 35 ;
36 [label="gini = 0.5\nsamples = 2\nvalue = [1, 1]\nclass = benign", fillcolor="#ffffff"] ;
35 -> 36 ;
37 [label="gini = 0.0\nsamples = 11\nvalue = [0, 11]\nclass = malignant", fillcolor="#399de5"] ;
35 -> 37 ;
38 [label="gini = 0.0\nsamples = 1\nvalue = [1, 0]\nclass = benign", fillcolor="#e58139"] ;
30 -> 38 ;
39 [label="Nuclei <= 7.5\ngini = 0.062\nsamples = 31\nvalue = [1, 30]\nclass = malignant", fillcolor="#40a0e6"] ;
29 -> 39 ;
40 [label="Adhesion <= 4.5\ngini = 0.198\nsamples = 9\nvalue = [1, 8]\nclass = malignant", fillcolor="#52a9e8"] ;
39 -> 40 ;
41 [label="gini = 0.0\nsamples = 7\nvalue = [0, 7]\nclass = malignant", fillcolor="#399de5"] ;
40 -> 41 ;
42 [label="Mitoses <= 1.5\ngini = 0.5\nsamples = 2\nvalue = [1, 1]\nclass = benign", fillcolor="#ffffff"] ;
40 -> 42 ;
43 [label="gini = 0.0\nsamples = 1\nvalue = [0, 1]\nclass = malignant", fillcolor="#399de5"] ;
42 -> 43 ;
44 [label="gini = 0.0\nsamples = 1\nvalue = [1, 0]\nclass = benign", fillcolor="#e58139"] ;
42 -> 44 ;
45 [label="gini = 0.0\nsamples = 22\nvalue = [0, 22]\nclass = malignant", fillcolor="#399de5"] ;
39 -> 45 ;
46 [label="Adhesion <= 1.5\ngini = 0.034\nsamples = 174\nvalue = [3, 171]\nclass = malignant", fillcolor="#3c9fe5"] ;
22 -> 46 ;
47 [label="Clump Thickness <= 7.0\ngini = 0.298\nsamples = 11\nvalue = [2, 9]\nclass = malignant", fillcolor="#65b3eb"] ;
46 -> 47 ;
48 [label="Nucleoli <= 8.5\ngini = 0.5\nsamples = 4\nvalue = [2, 2]\nclass = benign", fillcolor="#ffffff"] ;
47 -> 48 ;
49 [label="gini = 0.0\nsamples = 2\nvalue = [2, 0]\nclass = benign", fillcolor="#e58139"] ;
48 -> 49 ;
50 [label="gini = 0.0\nsamples = 2\nvalue = [0, 2]\nclass = malignant", fillcolor="#399de5"] ;
48 -> 50 ;
51 [label="gini = 0.0\nsamples = 7\nvalue = [0, 7]\nclass = malignant", fillcolor="#399de5"] ;
47 -> 51 ;
52 [label="Nucleoli <= 2.5\ngini = 0.012\nsamples = 163\nvalue = [1, 162]\nclass = malignant", fillcolor="#3a9ee5"] ;
46 -> 52 ;
53 [label="Nucleoli <= 1.5\ngini = 0.071\nsamples = 27\nvalue = [1, 26]\nclass = malignant", fillcolor="#41a1e6"] ;
52 -> 53 ;
54 [label="gini = 0.0\nsamples = 22\nvalue = [0, 22]\nclass = malignant", fillcolor="#399de5"] ;
53 -> 54 ;
55 [label="Nuclei <= 9.0\ngini = 0.32\nsamples = 5\nvalue = [1, 4]\nclass = malignant", fillcolor="#6ab6ec"] ;
53 -> 55 ;
56 [label="gini = 0.0\nsamples = 1\nvalue = [1, 0]\nclass = benign", fillcolor="#e58139"] ;
55 -> 56 ;
57 [label="gini = 0.0\nsamples = 4\nvalue = [0, 4]\nclass = malignant", fillcolor="#399de5"] ;
55 -> 57 ;
58 [label="gini = 0.0\nsamples = 136\nvalue = [0, 136]\nclass = malignant", fillcolor="#399de5"] ;
52 -> 58 ;
}